{
  "pixel_classifier_type": "OpenCVPixelClassifier",
  "metadata": {
    "inputPadding": 0,
    "inputResolution": {
      "pixelWidth": {
        "value": 16.0352,
        "unit": "µm"
      },
      "pixelHeight": {
        "value": 16.0352,
        "unit": "µm"
      },
      "zSpacing": {
        "value": 1.0,
        "unit": "z-slice"
      },
      "timeUnit": "SECONDS",
      "timepoints": []
    },
    "inputWidth": 512,
    "inputHeight": 512,
    "inputNumChannels": 3,
    "outputType": "CLASSIFICATION",
    "outputChannels": [
      {
        "name": "Adipocytes",
        "color": -132293
      },
      {
        "name": "Glass",
        "color": -2303270
      },
      {
        "name": "Necrosis",
        "color": -15053542
      },
      {
        "name": "Stroma",
        "color": -15060071
      },
      {
        "name": "Tumor",
        "color": -1893860
      }
    ],
    "classificationLabels": {
      "0": {
        "name": "Adipocytes",
        "colorRGB": -132293
      },
      "1": {
        "name": "Glass",
        "colorRGB": -2303270
      },
      "2": {
        "name": "Necrosis",
        "colorRGB": -15053542
      },
      "3": {
        "name": "Stroma",
        "colorRGB": -15060071
      },
      "4": {
        "name": "Tumor",
        "colorRGB": -1893860
      }
    }
  },
  "op": {
    "type": "data.op.channels",
    "colorTransforms": [
      {
        "channelName": "Red"
      },
      {
        "channelName": "Green"
      },
      {
        "channelName": "Blue"
      },
      {
        "stains": {
          "name": "H\u0026E default",
          "stain1": {
            "r": 0.6511078297640718,
            "g": 0.7011930397459234,
            "b": 0.2904942598947397,
            "name": "Hematoxylin",
            "isResidual": false
          },
          "stain2": {
            "r": 0.2158989396452469,
            "g": 0.8011960486835193,
            "b": 0.5580972490829657,
            "name": "Eosin",
            "isResidual": false
          },
          "stain3": {
            "r": 0.3155105736760095,
            "g": -0.5981592040221263,
            "b": 0.736653680193245,
            "name": "Residual",
            "isResidual": true
          },
          "maxRed": 255.0,
          "maxGreen": 255.0,
          "maxBlue": 255.0
        },
        "stainNumber": 1
      },
      {
        "stains": {
          "name": "H\u0026E default",
          "stain1": {
            "r": 0.6511078297640718,
            "g": 0.7011930397459234,
            "b": 0.2904942598947397,
            "name": "Hematoxylin",
            "isResidual": false
          },
          "stain2": {
            "r": 0.2158989396452469,
            "g": 0.8011960486835193,
            "b": 0.5580972490829657,
            "name": "Eosin",
            "isResidual": false
          },
          "stain3": {
            "r": 0.3155105736760095,
            "g": -0.5981592040221263,
            "b": 0.736653680193245,
            "name": "Residual",
            "isResidual": true
          },
          "maxRed": 255.0,
          "maxGreen": 255.0,
          "maxBlue": 255.0
        },
        "stainNumber": 2
      }
    ],
    "op": {
      "type": "op.core.sequential",
      "ops": [
        {
          "type": "op.core.sequential",
          "ops": [
            {
              "type": "op.core.split-merge",
              "ops": [
                {
                  "type": "op.multiscale",
                  "features": [
                    "GAUSSIAN"
                  ],
                  "sigmaX": 1.0,
                  "sigmaY": 1.0
                },
                {
                  "type": "op.multiscale",
                  "features": [
                    "GAUSSIAN"
                  ],
                  "sigmaX": 2.0,
                  "sigmaY": 2.0
                },
                {
                  "type": "op.multiscale",
                  "features": [
                    "GAUSSIAN"
                  ],
                  "sigmaX": 4.0,
                  "sigmaY": 4.0
                },
                {
                  "type": "op.multiscale",
                  "features": [
                    "GAUSSIAN"
                  ],
                  "sigmaX": 8.0,
                  "sigmaY": 8.0
                }
              ]
            },
            {
              "type": "op.feature-preprocessor",
              "preprocessor": {
                "normalizer": {
                  "offsets": [
                    0.0,
                    0.0,
                    0.0,
                    0.0,
                    0.0,
                    0.0,
                    0.0,
                    0.0,
                    0.0,
                    0.0,
                    0.0,
                    0.0,
                    0.0,
                    0.0,
                    0.0,
                    0.0,
                    0.0,
                    0.0,
                    0.0,
                    0.0
                  ],
                  "scales": [
                    1.0,
                    1.0,
                    1.0,
                    1.0,
                    1.0,
                    1.0,
                    1.0,
                    1.0,
                    1.0,
                    1.0,
                    1.0,
                    1.0,
                    1.0,
                    1.0,
                    1.0,
                    1.0,
                    1.0,
                    1.0,
                    1.0,
                    1.0
                  ],
                  "missingValue": 0.0
                },
                "inputLength": 20,
                "outputLength": 20
              }
            }
          ]
        },
        {
          "type": "op.opencv-statmodel",
          "model": {
            "class": "ANN_MLP",
            "statmodel": {
              "format": 3,
              "layer_sizes": [
                20,
                5
              ],
              "activation_function": "SIGMOID_SYM",
              "f_param1": 1.0,
              "f_param2": 1.0,
              "min_val": -9.4999999999999996e-01,
              "max_val": 9.4999999999999996e-01,
              "min_val1": -9.7999999999999998e-01,
              "max_val1": 9.7999999999999998e-01,
              "training_params": {
                "train_method": "RPROP",
                "dw0": 1.0000000000000001e-01,
                "dw_plus": 1.2000000000000000e+00,
                "dw_minus": 5.0000000000000000e-01,
                "dw_min": 1.1920928955078125e-07,
                "dw_max": 50.0,
                "term_criteria": {
                  "epsilon": 1.0000000000000000e-02,
                  "iterations": 1000
                }
              },
              "input_scale": [
                2.3555325992442713e-02,
                -4.8197623691316975e+00,
                1.8599200171770219e-02,
                -3.5554856978014411e+00,
                2.9814464611673058e-02,
                -6.2968608096620837e+00,
                6.5215100348132902e+00,
                -9.6828795340519880e-01,
                1.4976288097700246e+01,
                -1.1394824084868829e+00,
                2.4500003685222673e-02,
                -5.0138523740884144e+00,
                1.9204111563094491e-02,
                -3.6715629781215631e+00,
                3.0947468285402922e-02,
                -6.5364597744295869e+00,
                6.8721290855400170e+00,
                -1.0191129882483234e+00,
                1.5578627242317875e+01,
                -1.1858782771795691e+00,
                2.5226456781724041e-02,
                -5.1649166097498327e+00,
                1.9683028589849976e-02,
                -3.7646643420084711e+00,
                3.1798192728884130e-02,
                -6.7175685879039708e+00,
                7.1251040622344863e+00,
                -1.0534733374106291e+00,
                1.6005164225907638e+01,
                -1.2188159903325197e+00,
                2.6011936311665127e-02,
                -5.3319119761482963e+00,
                2.0204257651935439e-02,
                -3.8684801995336184e+00,
                3.2686711964145083e-02,
                -6.9093451994174861e+00,
                7.3822715351659864e+00,
                -1.0839896257341035e+00,
                1.6390298322833370e+01,
                -1.2485946218630217e+00
              ],
              "output_scale": [
                1.0,
                0.0,
                1.0,
                0.0,
                1.0,
                0.0,
                1.0,
                0.0,
                1.0,
                0.0
              ],
              "inv_output_scale": [
                1.0,
                0.0,
                1.0,
                0.0,
                1.0,
                0.0,
                1.0,
                0.0,
                1.0,
                0.0
              ],
              "weights": [
                [
                  -9.3623057392409537e-01,
                  -4.9077225922407808e-01,
                  5.9340872262285149e-01,
                  5.0039494594209255e-01,
                  -7.3810473253617348e-01,
                  2.0384112662926918e-01,
                  -1.7560465267000067e-01,
                  6.0072351000228130e-01,
                  -2.5791164945680051e-01,
                  -4.2113913750860094e-01,
                  -5.2158682562771697e-01,
                  -6.4842054376146219e-01,
                  -7.8959433820839886e-01,
                  -4.3702857144928070e-01,
                  9.5442344011268709e-01,
                  -9.7925546911217332e-01,
                  5.6630905705880330e-01,
                  2.7110229100321215e-01,
                  -9.5491622462673884e-02,
                  1.2960754210100631e-01,
                  -8.2747564074401803e-01,
                  -9.1609964496609675e-01,
                  4.4364313941345851e-02,
                  -5.2795769905198831e-01,
                  -7.6949252040411376e-01,
                  -6.3503834824941807e-01,
                  -7.4214776154390394e-01,
                  -7.1852279150659926e-01,
                  8.3396384470146634e-01,
                  -3.6115433063849040e-01,
                  7.5927008510181282e-01,
                  -8.3267504557524719e-01,
                  4.1317342654308803e-01,
                  -6.4124856882796522e-01,
                  -4.5775733802883078e-01,
                  -5.1982888743560263e-01,
                  8.3768371345891957e-01,
                  6.0470377342570814e-01,
                  -5.1258422254450386e-01,
                  9.6752958657790722e-01,
                  -6.1568870658860531e-01,
                  -9.3720753228099762e-01,
                  -6.9130059775589359e-01,
                  -1.1101061675787323e+00,
                  -4.2222838354227094e-01,
                  7.5154459955581698e-01,
                  -8.0275631180523077e-01,
                  7.3791200799603318e-01,
                  8.1947019261324128e-01,
                  -9.8491248895859640e-01,
                  8.4081227919660073e-01,
                  5.3531727189314571e-01,
                  -1.4558494028628052e-01,
                  -1.1145022635335304e-01,
                  -6.7891551116193394e-01,
                  1.4171142622681382e-01,
                  -6.1428997827168652e-02,
                  3.1923457499775443e-01,
                  -5.2015160768286384e-01,
                  -5.8792010156327712e-01,
                  -6.8241322304542262e-01,
                  5.0955567811354119e-01,
                  -9.5995602997771756e-01,
                  2.1306607752957069e-01,
                  -4.7407973311449925e-01,
                  -8.8389337133630164e-01,
                  4.3213983424664169e-02,
                  -4.7312743046456418e-01,
                  -2.7087007947138364e-02,
                  2.0166709926331179e+00,
                  -4.2327415751879843e-01,
                  -7.2676041760767640e-01,
                  6.3876007472433993e-04,
                  1.8622045536736340e-01,
                  -6.7405860359285041e-01,
                  -6.1945379930774436e-01,
                  -2.5879613015855440e-01,
                  -6.7308128749532836e-01,
                  7.9466249371978082e-01,
                  -7.4365317924022489e-01,
                  -5.2187406102431688e-01,
                  9.0816358579533996e-01,
                  5.5583771922772440e-01,
                  6.2759237990395178e-02,
                  4.7956972791201141e-01,
                  1.9223764544839973e-03,
                  4.8578994556582022e-01,
                  1.1101434751848926e-01,
                  -8.4527951399704904e-01,
                  8.7052477159479158e-01,
                  -8.4839170283015153e-01,
                  5.6684755418259691e-01,
                  4.4063094276927994e-01,
                  -1.1073874070376941e+00,
                  4.4988706652979689e+00,
                  -2.8641014859125558e-01,
                  -9.5520763461570901e-01,
                  -6.9455284804416428e-02,
                  6.8815849186692923e-01,
                  -2.6652443938738091e-01,
                  -1.3211553240361811e+00,
                  -3.1161914356685605e+00,
                  -5.9586586129209804e+00,
                  -2.7182920910206541e+00,
                  1.0672434957699448e+00
                ]
              ]
            }
          },
          "requestProbabilities": false
        },
        {
          "type": "op.core.convert",
          "pixelType": "UINT8"
        }
      ]
    }
  }
}